{
    "score": 99,
    "w1": [
        [
            0.9211482463358414,
            -0.2898986825423625,
            1.3094941130416284,
            -0.030954284815268185,
            -0.8090372984884161
        ],
        [
            -0.22457053747020006,
            -0.6787860380851528,
            2.6860740880406144,
            -1.2952419033133122,
            2.1782395292810586
        ],
        [
            -0.20980037280263408,
            -1.9223462179370552,
            -1.2200630813084037,
            -1.3469491354645573,
            0.04448910040754628
        ],
        [
            -1.2225537615963062,
            1.0618090219171015,
            0.6896537898042441,
            0.46609445554853846,
            -1.34641858748995
        ],
        [
            0.4210257864076191,
            0.8943725340952884,
            -0.26902597953922014,
            0.8155700984137423,
            -1.2991972101397637
        ]
    ],
    "b1": [
        [
            -0.4389174862545683
        ],
        [
            -0.1348664649770257
        ],
        [
            0.31421130078298964
        ],
        [
            -0.5085754938713063
        ],
        [
            -1.0513163621940311
        ]
    ],
    "w2": [
        [
            -0.6919238937425845,
            -0.6367586507902395,
            2.0662577191968095,
            -0.7407175002963748,
            1.0607177804306689
        ],
        [
            2.1899161676942973,
            0.34900011728251956,
            0.09435882919957228,
            0.43334366505289545,
            1.4360426791463596
        ]
    ],
    "b2": [
        [
            1.2166511396279396
        ],
        [
            -0.01666788648598383
        ]
    ]
}